<?xml version="1.0"?>
<opencv_storage>
<cascade>
  <stageType>BOOST</stageType>
  <featureType>HAAR</featureType>
  <height>20</height>
  <width>20</width>
  <stageParams>
    <boostType>GAB</boostType>
    <minHitRate>9.9000000953674316e-01</minHitRate>
    <maxFalseAlarm>6.9999998807907104e-01</maxFalseAlarm>
    <weightTrimRate>9.4999999999999996e-01</weightTrimRate>
    <maxDepth>1</maxDepth>
    <maxWeakCount>100</maxWeakCount></stageParams>
  <featureParams>
    <maxCatCount>0</maxCatCount>
    <featSize>1</featSize>
    <mode>ALL</mode></featureParams>
  <stageNum>10</stageNum>
  <stages>
    <!-- stage 0 -->
    <_>
      <maxWeakCount>2</maxWeakCount>
      <stageThreshold>-5.1027953624725342e-01</stageThreshold>
      <weakClassifiers>
        <_>
          <internalNodes>
            0 -1 9 -3.2259166240692139e-01</internalNodes>
          <leafValues>
            5.0692522525787354e-01 -9.6861720085144043e-01</leafValues></_>
        <_>
          <internalNodes>
            0 -1 1 -2.8975111246109009e-01</internalNodes>
          <leafValues>
            4.5833763480186462e-01 -9.5652663707733154e-01</leafValues></_></weakClassifiers></_>
    <!-- stage 1 -->
    <_>
      <maxWeakCount>3</maxWeakCount>
      <stageThreshold>-1.8029134273529053e+00</stageThreshold>
      <weakClassifiers>
        <_>
          <internalNodes>
            0 -1 7 -4.6228623390197754e-01</internalNodes>
          <leafValues>
            3.9106145501136780e-02 -9.1247552633285522e-01</leafValues></_>
        <_>
          <internalNodes>
            0 -1 6 1.1210247129201889e-01</internalNodes>
          <leafValues>
            -9.1845226287841797e-01 4.8720303922891617e-02</leafValues></_>
        <_>
          <internalNodes>
            0 -1 10 -9.0281896293163300e-02</internalNodes>
          <leafValues>
            2.4275541305541992e-01 -9.3915826082229614e-01</leafValues></_></weakClassifiers></_>
    <!-- stage 2 -->
    <_>
      <maxWeakCount>4</maxWeakCount>
      <stageThreshold>-1.8799790143966675e+00</stageThreshold>
      <weakClassifiers>
        <_>
          <internalNodes>
            0 -1 15 1.1139413714408875e-01</internalNodes>
          <leafValues>
            -8.6544340848922729e-01 3.3333334326744080e-01</leafValues></_>
        <_>
          <internalNodes>
            0 -1 4 -9.5423829555511475e-01</internalNodes>
          <leafValues>
            2.6246714591979980e-01 -7.6236236095428467e-01</leafValues></_>
        <_>
          <internalNodes>
            0 -1 16 2.2805357730248943e-05</internalNodes>
          <leafValues>
            -5.8581447601318359e-01 4.9216482043266296e-01</leafValues></_>
        <_>
          <internalNodes>
            0 -1 2 -8.5772544145584106e-02</internalNodes>
          <leafValues>
            4.0111437439918518e-01 -7.4433809518814087e-01</leafValues></_></weakClassifiers></_>
    <!-- stage 3 -->
    <_>
      <maxWeakCount>3</maxWeakCount>
      <stageThreshold>-1.4015704393386841e+00</stageThreshold>
      <weakClassifiers>
        <_>
          <internalNodes>
            0 -1 19 -6.7251193523406982e-01</internalNodes>
          <leafValues>
            1.3550135307013988e-02 -9.1281545162200928e-01</leafValues></_>
        <_>
          <internalNodes>
            0 -1 26 1.3225415349006653e-01</internalNodes>
          <leafValues>
            -9.0418905019760132e-01 7.5306102633476257e-02</leafValues></_>
        <_>
          <internalNodes>
            0 -1 29 -1.1587616056203842e-02</internalNodes>
          <leafValues>
            5.3030765056610107e-01 -5.1093149185180664e-01</leafValues></_></weakClassifiers></_>
    <!-- stage 4 -->
    <_>
      <maxWeakCount>4</maxWeakCount>
      <stageThreshold>-1.8287103176116943e+00</stageThreshold>
      <weakClassifiers>
        <_>
          <internalNodes>
            0 -1 7 -4.7850796580314636e-01</internalNodes>
          <leafValues>
            -2.6133909821510315e-01 -8.9922219514846802e-01</leafValues></_>
        <_>
          <internalNodes>
            0 -1 13 7.1194253861904144e-02</internalNodes>
          <leafValues>
            -5.8844655752182007e-01 4.9045479297637939e-01</leafValues></_>
        <_>
          <internalNodes>
            0 -1 18 6.7877709865570068e-02</internalNodes>
          <leafValues>
            -6.0570096969604492e-01 3.7710040807723999e-01</leafValues></_>
        <_>
          <internalNodes>
            0 -1 22 4.4567245990037918e-02</internalNodes>
          <leafValues>
            -7.1814197301864624e-01 3.4445205330848694e-01</leafValues></_></weakClassifiers></_>
    <!-- stage 5 -->
    <_>
      <maxWeakCount>4</maxWeakCount>
      <stageThreshold>-1.6829855442047119e+00</stageThreshold>
      <weakClassifiers>
        <_>
          <internalNodes>
            0 -1 25 -1.1579316109418869e-02</internalNodes>
          <leafValues>
            -4.5871559530496597e-02 -8.6508435010910034e-01</leafValues></_>
        <_>
          <internalNodes>
            0 -1 31 -2.2452068151324056e-05</internalNodes>
          <leafValues>
            4.3373137712478638e-01 -5.8084213733673096e-01</leafValues></_>
        <_>
          <internalNodes>
            0 -1 20 -6.8066574633121490e-02</internalNodes>
          <leafValues>
            4.4168400764465332e-01 -4.7124734520912170e-01</leafValues></_>
        <_>
          <internalNodes>
            0 -1 0 -8.9035525918006897e-02</internalNodes>
          <leafValues>
            2.3418822884559631e-01 -8.5278707742691040e-01</leafValues></_></weakClassifiers></_>
    <!-- stage 6 -->
    <_>
      <maxWeakCount>5</maxWeakCount>
      <stageThreshold>-2.1678855419158936e+00</stageThreshold>
      <weakClassifiers>
        <_>
          <internalNodes>
            0 -1 14 -1.5426659025251865e-02</internalNodes>
          <leafValues>
            -1.5636363625526428e-01 -8.7027025222778320e-01</leafValues></_>
        <_>
          <internalNodes>
            0 -1 20 -6.8549856543540955e-02</internalNodes>
          <leafValues>
            1.9251519441604614e-01 -6.8831771612167358e-01</leafValues></_>
        <_>
          <internalNodes>
            0 -1 31 -2.2452068151324056e-05</internalNodes>
          <leafValues>
            6.7628639936447144e-01 -3.8262933492660522e-01</leafValues></_>
        <_>
          <internalNodes>
            0 -1 28 -3.6818504333496094e-02</internalNodes>
          <leafValues>
            2.5598573684692383e-01 -8.1449890136718750e-01</leafValues></_>
        <_>
          <internalNodes>
            0 -1 24 2.4595181457698345e-05</internalNodes>
          <leafValues>
            -4.8265388607978821e-01 3.8744714856147766e-01</leafValues></_></weakClassifiers></_>
    <!-- stage 7 -->
    <_>
      <maxWeakCount>4</maxWeakCount>
      <stageThreshold>-1.5694288015365601e+00</stageThreshold>
      <weakClassifiers>
        <_>
          <internalNodes>
            0 -1 27 -2.9451897367835045e-02</internalNodes>
          <leafValues>
            3.2608696818351746e-01 -8.4435093402862549e-01</leafValues></_>
        <_>
          <internalNodes>
            0 -1 8 -7.6783820986747742e-02</internalNodes>
          <leafValues>
            1.5546886622905731e-01 -6.3627940416336060e-01</leafValues></_>
        <_>
          <internalNodes>
            0 -1 23 -3.7010246887803078e-03</internalNodes>
          <leafValues>
            8.0032217502593994e-01 -2.5617605447769165e-01</leafValues></_>
        <_>
          <internalNodes>
            0 -1 3 -2.2298764437437057e-02</internalNodes>
          <leafValues>
            2.0532333850860596e-01 -8.8912063837051392e-01</leafValues></_></weakClassifiers></_>
    <!-- stage 8 -->
    <_>
      <maxWeakCount>3</maxWeakCount>
      <stageThreshold>-1.3160898685455322e+00</stageThreshold>
      <weakClassifiers>
        <_>
          <internalNodes>
            0 -1 21 4.5553352683782578e-03</internalNodes>
          <leafValues>
            -8.5030305385589600e-01 2.1666666865348816e-01</leafValues></_>
        <_>
          <internalNodes>
            0 -1 12 -4.1763866320252419e-03</internalNodes>
          <leafValues>
            -8.5284239053726196e-01 -4.2963232845067978e-02</leafValues></_>
        <_>
          <internalNodes>
            0 -1 11 2.1722724341088906e-05</internalNodes>
          <leafValues>
            -4.1165757179260254e-01 3.8705554604530334e-01</leafValues></_></weakClassifiers></_>
    <!-- stage 9 -->
    <_>
      <maxWeakCount>3</maxWeakCount>
      <stageThreshold>-1.4106976985931396e+00</stageThreshold>
      <weakClassifiers>
        <_>
          <internalNodes>
            0 -1 17 1.0358124040067196e-02</internalNodes>
          <leafValues>
            -8.3462226390838623e-01 4.4827586412429810e-01</leafValues></_>
        <_>
          <internalNodes>
            0 -1 30 -2.4430060875602067e-05</internalNodes>
          <leafValues>
            3.0521610379219055e-01 -5.2694123983383179e-01</leafValues></_>
        <_>
          <internalNodes>
            0 -1 5 7.1351438760757446e-02</internalNodes>
          <leafValues>
            -8.8129150867462158e-01 1.6608840227127075e-01</leafValues></_></weakClassifiers></_></stages>
  <features>
    <_>
      <rects>
        <_>
          0 0 15 8 -1.</_>
        <_>
          0 4 15 4 2.</_></rects>
      <tilted>0</tilted></_>
    <_>
      <rects>
        <_>
          0 3 20 13 -1.</_>
        <_>
          5 3 10 13 2.</_></rects>
      <tilted>0</tilted></_>
    <_>
      <rects>
        <_>
          0 5 8 11 -1.</_>
        <_>
          4 5 4 11 2.</_></rects>
      <tilted>0</tilted></_>
    <_>
      <rects>
        <_>
          0 6 16 13 -1.</_>
        <_>
          8 6 8 13 2.</_></rects>
      <tilted>0</tilted></_>
    <_>
      <rects>
        <_>
          2 1 18 18 -1.</_>
        <_>
          8 7 6 6 9.</_></rects>
      <tilted>0</tilted></_>
    <_>
      <rects>
        <_>
          3 12 10 8 -1.</_>
        <_>
          3 16 10 4 2.</_></rects>
      <tilted>0</tilted></_>
    <_>
      <rects>
        <_>
          3 12 14 8 -1.</_>
        <_>
          3 16 14 4 2.</_></rects>
      <tilted>0</tilted></_>
    <_>
      <rects>
        <_>
          4 0 12 20 -1.</_>
        <_>
          4 5 12 10 2.</_></rects>
      <tilted>0</tilted></_>
    <_>
      <rects>
        <_>
          4 7 7 4 -1.</_>
        <_>
          4 7 7 2 2.</_></rects>
      <tilted>1</tilted></_>
    <_>
      <rects>
        <_>
          5 0 11 20 -1.</_>
        <_>
          5 5 11 10 2.</_></rects>
      <tilted>0</tilted></_>
    <_>
      <rects>
        <_>
          5 0 12 8 -1.</_>
        <_>
          5 4 12 4 2.</_></rects>
      <tilted>0</tilted></_>
    <_>
      <rects>
        <_>
          5 7 1 2 -1.</_>
        <_>
          5 8 1 1 2.</_></rects>
      <tilted>0</tilted></_>
    <_>
      <rects>
        <_>
          5 8 4 3 -1.</_>
        <_>
          7 8 2 3 2.</_></rects>
      <tilted>0</tilted></_>
    <_>
      <rects>
        <_>
          6 7 9 6 -1.</_>
        <_>
          9 9 3 2 9.</_></rects>
      <tilted>0</tilted></_>
    <_>
      <rects>
        <_>
          6 8 3 3 -1.</_>
        <_>
          5 9 3 1 3.</_></rects>
      <tilted>1</tilted></_>
    <_>
      <rects>
        <_>
          6 8 9 6 -1.</_>
        <_>
          9 10 3 2 9.</_></rects>
      <tilted>0</tilted></_>
    <_>
      <rects>
        <_>
          6 9 2 2 -1.</_>
        <_>
          7 9 1 2 2.</_></rects>
      <tilted>0</tilted></_>
    <_>
      <rects>
        <_>
          7 10 4 1 -1.</_>
        <_>
          9 10 2 1 2.</_></rects>
      <tilted>0</tilted></_>
    <_>
      <rects>
        <_>
          8 0 4 8 -1.</_>
        <_>
          8 0 2 8 2.</_></rects>
      <tilted>1</tilted></_>
    <_>
      <rects>
        <_>
          8 1 12 18 -1.</_>
        <_>
          12 7 4 6 9.</_></rects>
      <tilted>0</tilted></_>
    <_>
      <rects>
        <_>
          8 7 12 6 -1.</_>
        <_>
          11 7 6 6 2.</_></rects>
      <tilted>0</tilted></_>
    <_>
      <rects>
        <_>
          8 10 1 3 -1.</_>
        <_>
          8 11 1 1 3.</_></rects>
      <tilted>0</tilted></_>
    <_>
      <rects>
        <_>
          8 12 4 8 -1.</_>
        <_>
          8 16 4 4 2.</_></rects>
      <tilted>0</tilted></_>
    <_>
      <rects>
        <_>
          9 8 1 3 -1.</_>
        <_>
          9 9 1 1 3.</_></rects>
      <tilted>0</tilted></_>
    <_>
      <rects>
        <_>
          9 9 2 3 -1.</_>
        <_>
          9 10 2 1 3.</_></rects>
      <tilted>0</tilted></_>
    <_>
      <rects>
        <_>
          9 10 6 1 -1.</_>
        <_>
          12 10 3 1 2.</_></rects>
      <tilted>0</tilted></_>
    <_>
      <rects>
        <_>
          10 3 10 12 -1.</_>
        <_>
          15 3 5 12 2.</_></rects>
      <tilted>0</tilted></_>
    <_>
      <rects>
        <_>
          10 10 1 9 -1.</_>
        <_>
          10 13 1 3 3.</_></rects>
      <tilted>0</tilted></_>
    <_>
      <rects>
        <_>
          11 10 8 2 -1.</_>
        <_>
          11 10 4 2 2.</_></rects>
      <tilted>1</tilted></_>
    <_>
      <rects>
        <_>
          12 3 4 3 -1.</_>
        <_>
          11 4 4 1 3.</_></rects>
      <tilted>1</tilted></_>
    <_>
      <rects>
        <_>
          14 8 2 1 -1.</_>
        <_>
          15 8 1 1 2.</_></rects>
      <tilted>0</tilted></_>
    <_>
      <rects>
        <_>
          15 10 2 1 -1.</_>
        <_>
          16 10 1 1 2.</_></rects>
      <tilted>0</tilted></_></features></cascade>
</opencv_storage>
